Language model created by QuickLM on Sun Dec  1 07:30:11 EST 2019
Copyright (c) 1996-2010 Carnegie Mellon University and Alexander I. Rudnicky

The model is in standard ARPA format, designed by Doug Paul while he was at MITRE.

The code that was used to produce this language model is available in Open Source.
Please visit http://www.speech.cs.cmu.edu/tools/ for more information

The (fixed) discount mass is 0.5. The backoffs are computed using the ratio method.
This model based on a corpus of 4 sentences and 6 words

\data\
ngram 1=6
ngram 2=8
ngram 3=4

\1-grams:
-0.7782 </s> -0.3010
-0.7782 <s> -0.2218
-1.3802 一上首 -0.2218
-1.3802 一下首 -0.2218
-1.3802 安非他命 -0.2218
-1.3802 搖頭丸 -0.2218

\2-grams:
-0.9031 <s> 一上首 0.0000
-0.9031 <s> 一下首 0.0000
-0.9031 <s> 安非他命 0.0000
-0.9031 <s> 搖頭丸 0.0000
-0.3010 一上首 </s> -0.3010
-0.3010 一下首 </s> -0.3010
-0.3010 安非他命 </s> -0.3010
-0.3010 搖頭丸 </s> -0.3010

\3-grams:
-0.3010 <s> <s>一上首</s> </s>
-0.3010 <s> <s>一下首</s> </s>
-0.3010 <s> <s>安非他命</s> </s>
-0.3010 <s> <s>搖頭丸</s> </s>

\end\
