Language model created by QuickLM on Mon Dec  9 07:04:56 EST 2019
Copyright (c) 1996-2010 Carnegie Mellon University and Alexander I. Rudnicky

The model is in standard ARPA format, designed by Doug Paul while he was at MITRE.

The code that was used to produce this language model is available in Open Source.
Please visit http://www.speech.cs.cmu.edu/tools/ for more information

The (fixed) discount mass is 0.5. The backoffs are computed using the ratio method.
This model based on a corpus of 16 sentences and 18 words

\data\
ngram 1=18
ngram 2=32
ngram 3=16

\1-grams:
-0.7782 </s> -0.3010
-0.7782 <s> -0.2218
-1.9823 FM二 -0.2218
-1.9823 K他命 -0.2218
-1.9823 K他命k煙 -0.2218
-1.9823 K他命拉k -0.2218
-1.9823 一粒眠紅豆 -0.2218
-1.9823 卡西同浴鹽 -0.2218
-1.9823 卡西同類喵喵 -0.2218
-1.9823 大麻 -0.2218
-1.9823 安非他命 -0.2218
-1.9823 安非他命吸食器 -0.2218
-1.9823 搖頭丸 -0.2218
-1.9823 毒咖啡包 -0.2218
-1.9823 毒梅粉 -0.2218
-1.9823 海洛因 -0.2218
-1.9823 海洛因和注射器 -0.2218
-1.9823 海洛因注射 -0.2218

\2-grams:
-1.5051 <s> FM二 0.0000
-1.5051 <s> K他命 0.0000
-1.5051 <s> K他命k煙 0.0000
-1.5051 <s> K他命拉k 0.0000
-1.5051 <s> 一粒眠紅豆 0.0000
-1.5051 <s> 卡西同浴鹽 0.0000
-1.5051 <s> 卡西同類喵喵 0.0000
-1.5051 <s> 大麻 0.0000
-1.5051 <s> 安非他命 0.0000
-1.5051 <s> 安非他命吸食器 0.0000
-1.5051 <s> 搖頭丸 0.0000
-1.5051 <s> 毒咖啡包 0.0000
-1.5051 <s> 毒梅粉 0.0000
-1.5051 <s> 海洛因 0.0000
-1.5051 <s> 海洛因和注射器 0.0000
-1.5051 <s> 海洛因注射 0.0000
-0.3010 FM二 </s> -0.3010
-0.3010 K他命 </s> -0.3010
-0.3010 K他命k煙 </s> -0.3010
-0.3010 K他命拉k </s> -0.3010
-0.3010 一粒眠紅豆 </s> -0.3010
-0.3010 卡西同浴鹽 </s> -0.3010
-0.3010 卡西同類喵喵 </s> -0.3010
-0.3010 大麻 </s> -0.3010
-0.3010 安非他命 </s> -0.3010
-0.3010 安非他命吸食器 </s> -0.3010
-0.3010 搖頭丸 </s> -0.3010
-0.3010 毒咖啡包 </s> -0.3010
-0.3010 毒梅粉 </s> -0.3010
-0.3010 海洛因 </s> -0.3010
-0.3010 海洛因和注射器 </s> -0.3010
-0.3010 海洛因注射 </s> -0.3010

\3-grams:
-0.3010 <s> <s>FM二</s> </s>
-0.3010 <s> <s>K他命</s> </s>
-0.3010 <s> <s>K他命k煙</s> </s>
-0.3010 <s> <s>K他命拉k</s> </s>
-0.3010 <s> <s>一粒眠紅豆</s> </s>
-0.3010 <s> <s>卡西同浴鹽</s> </s>
-0.3010 <s> <s>卡西同類喵喵</s> </s>
-0.3010 <s> <s>大麻</s> </s>
-0.3010 <s> <s>安非他命</s> </s>
-0.3010 <s> <s>安非他命吸食器</s> </s>
-0.3010 <s> <s>搖頭丸</s> </s>
-0.3010 <s> <s>毒咖啡包</s> </s>
-0.3010 <s> <s>毒梅粉</s> </s>
-0.3010 <s> <s>海洛因</s> </s>
-0.3010 <s> <s>海洛因和注射器</s> </s>
-0.3010 <s> <s>海洛因注射</s> </s>

\end\
