Language model created by QuickLM on Wed Jul  1 01:30:23 EDT 2020
Copyright (c) 1996-2010 Carnegie Mellon University and Alexander I. Rudnicky

The model is in standard ARPA format, designed by Doug Paul while he was at MITRE.

The code that was used to produce this language model is available in Open Source.
Please visit http://www.speech.cs.cmu.edu/tools/ for more information

The (fixed) discount mass is 0.5. The backoffs are computed using the ratio method.
This model based on a corpus of 5 sentences and 7 words

\data\
ngram 1=7
ngram 2=10
ngram 3=5

\1-grams:
-0.7782 </s> -0.3010
-0.7782 <s> -0.2218
-1.4771 <s>b同學</s> -0.2218
-1.4771 <s>你手沒伸出來</s> -0.2218
-1.4771 <s>你沒有看我拉</s> -0.2218
-1.4771 <s>你要等我看你</s> -0.2218
-1.4771 <s>好</s> -0.2218

\2-grams:
-1.0000 <s> <s>b同學</s> 0.0000
-1.0000 <s> <s>你手沒伸出來</s> 0.0000
-1.0000 <s> <s>你沒有看我拉</s> 0.0000
-1.0000 <s> <s>你要等我看你</s> 0.0000
-1.0000 <s> <s>好</s> 0.0000
-0.3010 <s>b同學</s> </s> -0.3010
-0.3010 <s>你手沒伸出來</s> </s> -0.3010
-0.3010 <s>你沒有看我拉</s> </s> -0.3010
-0.3010 <s>你要等我看你</s> </s> -0.3010
-0.3010 <s>好</s> </s> -0.3010

\3-grams:
-0.3010 <s> <s>b同學</s> </s>
-0.3010 <s> <s>你手沒伸出來</s> </s>
-0.3010 <s> <s>你沒有看我拉</s> </s>
-0.3010 <s> <s>你要等我看你</s> </s>
-0.3010 <s> <s>好</s> </s>

\end\
